digraph Tree {
node [shape=box, style="filled", color="black"] ;
0 [label="x3 <= 2.45\nentropy = 1.585\nsamples = 150\nvalue = [50, 50, 50]", fillcolor="#ffffff"] ;
1 [label="entropy = 0.0\nsamples = 50\nvalue = [50, 0, 0]", fillcolor="#e58139"] ;
0 -> 1 [labeldistance=2.5, labelangle=45, headlabel="True"] ;
2 [label="x4 <= 1.75\nentropy = 1.0\nsamples = 100\nvalue = [0, 50, 50]", fillcolor="#ffffff"] ;
0 -> 2 [labeldistance=2.5, labelangle=-45, headlabel="False"] ;
3 [label="x3 <= 4.95\nentropy = 0.445\nsamples = 54\nvalue = [0, 49, 5]", fillcolor="#4de88e"] ;
2 -> 3 ;
4 [label="x4 <= 1.65\nentropy = 0.146\nsamples = 48\nvalue = [0, 47, 1]", fillcolor="#3de684"] ;
3 -> 4 ;
5 [label="entropy = 0.0\nsamples = 47\nvalue = [0, 47, 0]", fillcolor="#39e581"] ;
4 -> 5 ;
6 [label="entropy = 0.0\nsamples = 1\nvalue = [0, 0, 1]", fillcolor="#8139e5"] ;
4 -> 6 ;
7 [label="x4 <= 1.55\nentropy = 0.918\nsamples = 6\nvalue = [0, 2, 4]", fillcolor="#c09cf2"] ;
3 -> 7 ;
8 [label="entropy = 0.0\nsamples = 3\nvalue = [0, 0, 3]", fillcolor="#8139e5"] ;
7 -> 8 ;
9 [label="entropy = 0.918\nsamples = 3\nvalue = [0, 2, 1]", fillcolor="#9cf2c0"] ;
7 -> 9 ;
10 [label="x3 <= 4.85\nentropy = 0.151\nsamples = 46\nvalue = [0, 1, 45]", fillcolor="#843de6"] ;
2 -> 10 ;
11 [label="x1 <= 5.95\nentropy = 0.918\nsamples = 3\nvalue = [0, 1, 2]", fillcolor="#c09cf2"] ;
10 -> 11 ;
12 [label="entropy = 0.0\nsamples = 1\nvalue = [0, 1, 0]", fillcolor="#39e581"] ;
11 -> 12 ;
13 [label="entropy = 0.0\nsamples = 2\nvalue = [0, 0, 2]", fillcolor="#8139e5"] ;
11 -> 13 ;
14 [label="entropy = 0.0\nsamples = 43\nvalue = [0, 0, 43]", fillcolor="#8139e5"] ;
10 -> 14 ;
}