digraph Tree {
node [shape=box, style="filled", color="black"] ;
0 [label="x2 <= 1.223\nentropy = 1.0\nsamples = 200\nvalue = [100, 100]", fillcolor="#e5813900"] ;
1 [label="x1 <= 1.452\nentropy = 0.567\nsamples = 105\nvalue = [91, 14]", fillcolor="#e58139d8"] ;
0 -> 1 [labeldistance=2.5, labelangle=45, headlabel="True"] ;
2 [label="x2 <= 0.726\nentropy = 0.159\nsamples = 86\nvalue = [84, 2]", fillcolor="#e58139f9"] ;
1 -> 2 ;
3 [label="entropy = 0.0\nsamples = 73\nvalue = [73, 0]", fillcolor="#e58139ff"] ;
2 -> 3 ;
4 [label="entropy = 0.619\nsamples = 13\nvalue = [11, 2]", fillcolor="#e58139d1"] ;
2 -> 4 ;
5 [label="x2 <= -0.542\nentropy = 0.949\nsamples = 19\nvalue = [7, 12]", fillcolor="#399de56a"] ;
1 -> 5 ;
6 [label="entropy = 0.0\nsamples = 5\nvalue = [5, 0]", fillcolor="#e58139ff"] ;
5 -> 6 ;
7 [label="entropy = 0.592\nsamples = 14\nvalue = [2, 12]", fillcolor="#399de5d4"] ;
5 -> 7 ;
8 [label="x1 <= 0.628\nentropy = 0.452\nsamples = 95\nvalue = [9, 86]", fillcolor="#399de5e4"] ;
0 -> 8 [labeldistance=2.5, labelangle=-45, headlabel="False"] ;
9 [label="x1 <= -0.202\nentropy = 0.918\nsamples = 12\nvalue = [8, 4]", fillcolor="#e581397f"] ;
8 -> 9 ;
10 [label="entropy = 0.0\nsamples = 5\nvalue = [5, 0]", fillcolor="#e58139ff"] ;
9 -> 10 ;
11 [label="entropy = 0.985\nsamples = 7\nvalue = [3, 4]", fillcolor="#399de540"] ;
9 -> 11 ;
12 [label="x2 <= 1.514\nentropy = 0.094\nsamples = 83\nvalue = [1, 82]", fillcolor="#399de5fc"] ;
8 -> 12 ;
13 [label="entropy = 0.544\nsamples = 8\nvalue = [1, 7]", fillcolor="#399de5db"] ;
12 -> 13 ;
14 [label="entropy = 0.0\nsamples = 75\nvalue = [0, 75]", fillcolor="#399de5ff"] ;
12 -> 14 ;
}